{"sizes": [240, 20, 20], "weights": [[[0.03397227,0.05083476,0.06588899,-0.07959232,0.04838071,0.04852255,-0.06999262,0.1063431,0.009624801,-0.02910724,-0.1047151,0.05597907,-0.05962572,-0.1105144,0.08045924,-0.01953903,-0.05118272,-0.01207983,0.09710533,0.04945019,-0.06484722,0.01565649,-0.06021115,0.02842498,-0.1493481,-0.1969461,0.001021104,-0.0181517,0.04989227,-0.08643836,0.06094418,0.003517567,-0.03663161,0.05778415,-0.0196543,0.03941804,-0.009610127,-0.05471506,-0.08618265,0.07269213,0.070826,0.06746168,0.02793932,-0.07888087,0.02265588,0.1251205,0.06490152,0.1260621,-0.02864294,0.1221543,-0.0886034,-0.05391529,-0.01385217,-0.02354977,0.01924249,-0.00805723,-0.0830694,-0.06173897,0.1614829,-0.06031776,-0.09758011,-0.07971011,0.1362736,0.000335209,-0.07088542,0.01926316,0.1227817,-0.008765792,-0.01231391,-0.2581653,-0.02885761,-0.03567979,0.01258964,-0.06195879,0.02474451,-0.02109022,0.07113704,-0.03370776,0.09734624,-0.1505162,-0.01096797,-0.03128083,-0.181924,0.1756385,0.02676743,-0.02311948,-0.09877351,0.08584141,-0.06732792,-0.07230799,-0.08562956,0.1219212,-0.05552842,0.06776945,0.03774417,-0.0314935,-0.07679391,-0.09235804,0.04759143,0.08104629,-0.008477695,0.1368593,-0.07329209,-0.0432946,0.1567316,-0.03271183,-0.01014667,0.1161656,0.2313838,0.07924625,-0.009144866,0.006640383,0.07106532,0.1412356,-0.0844252,-0.01008547,-0.03111416,-0.02780885,-0.1848374,-0.001852127,0.1832589,-0.03934321,-0.03871847,0.000515596,-0.0378352,-0.1031524,0.02519206,-0.01244135,0.04013839,-0.09576409,0.0754637,0.1837378,-0.01160172,0.01880998,0.08112969,0.1123259,0.06493419,-0.06558835,-0.07447863,0.0103292,-0.16728,0.1498579,-0.0664503,-0.01699756,-0.03330087,-0.09790183,-0.1435929,-0.08635896,0.0154573,-0.02476714,0.002979325,0.01421508,-0.04066715,0.01845704,-0.01302802,0.03695463,0.03086087,-0.02467406,0.02007271,0.161888,0.09487695,0.244409,0.08682398,0.100793,-0.09108722,0.07244904,-0.0907705,0.05727756,0.008448534,-0.03223974,-0.1026626,0.06833255,0.05245234,-0.0134755,0.01796954,0.04632688,-0.09658379,-0.04086789,0.07792886,0.05451591,-0.03273477,-0.04940157,0.1210156,0.1821925,-0.09903692,-0.02353803,-0.0120976,-0.08657144,0.05449234,-0.03644088,-0.1285838,-0.0820599,-0.0047704,-0.02185903,0.01706864,-0.1635738,0.150763,0.05693716,0.0178836,0.1288519,-0.03533041,0.06897992,0.1201363,-0.1670033,0.1155399,0.03147246,-0.03447531,0.07056331,-0.01026129,0.02678994,0.1058725,-0.09172895,0.1148447,0.1105656,0.05119586,0.02411114,0.06167983,0.03976448,0.01823531,-0.05185787,-0.006271138,-0.06578999,-0.04005554,-0.1061432,-0.05400918,-0.1072862,-0.06138671,0.01967951,0.06774738,0.07045191,-0.0513933,-0.15474,-0.1370564,0.1017866,0.04330561,0.06477185,0.07070846,-0.1076869,-0.0501169,-0.05441486],[-0.1816776,-0.1448773,-0.02133655,-0.01865377,-0.0701901,-0.058089,0.09395187,0.07777113,-0.01294421,0.1182308,-0.1252728,0.05146364,-0.0028264,0.1324106,0.08619665,0.0042318,-0.1805296,-0.1106315,0.009760998,0.06204116,-0.02107141,0.03740908,-0.06839603,-0.01671584,0.0199966,0.06842554,0.03190277,0.02268258,0.05148694,0.1379792,0.01450013,0.02912229,0.002237954,-0.1359567,0.08964428,-0.005067276,0.001782834,0.07769237,-0.1568303,-0.07485767,0.08568512,0.07571712,-0.1529651,-0.0224096,0.08379072,-0.04348952,0.000999496,0.06341176,0.07435156,-0.1537522,0.1366852,0.004884797,-0.07007552,-0.1781865,-0.02492553,0.04939411,0.08012689,-0.07895212,0.1244252,-0.06932638,0.09764209,0.04728616,0.03688034,-0.04412692,0.09273527,0.2601894,-0.01935342,-0.01436607,-0.03650383,-0.2027067,0.151637,0.004615295,0.04959593,-0.08736178,-0.07557148,0.006224491,-0.1095928,-0.001944505,0.06597491,0.04539299,0.02009497,0.000803542,-0.05266552,-0.000179363,0.003873905,0.03982221,0.01681859,0.07275363,0.05200772,0.1792499,0.02873798,0.04032543,-0.03988446,-0.03968036,-0.07016554,-0.05036425,-0.05036378,-0.1457921,-0.2214024,0.05643206,-0.02032852,0.07108154,-0.04776376,0.02108584,0.04683578,-0.01989371,-0.1050931,-0.006092825,-0.01203287,-0.04784167,0.05682834,-0.05310097,0.0870342,-0.1377248,0.09070529,-0.1618563,-0.04014736,-0.07915109,-0.0703221,-0.01886196,-0.01841365,-0.007869815,-0.02857151,-0.1180261,0.05888144,0.03515486,0.04394203,0.107772,0.002668113,-0.1233386,-0.06929187,0.1075282,0.04883967,0.1007715,-0.1407421,0.1271699,-0.04791397,-0.09118171,-0.168554,-0.02616477,-0.2088715,0.07375709,-0.03446649,0.03334782,0.00040569,0.08755377,0.0395936,0.03085132,-0.06138254,-0.1945614,0.02953658,-0.2005001,0.0315826,-0.04017398,0.07502636,0.08809704,0.07411316,-0.08801688,-0.01716149,0.05613994,-0.008718275,0.05383206,0.02162046,0.02575199,0.001597663,0.08209476,0.1962318,0.1432101,0.000634354,-0.001415099,0.156668,0.1341274,0.01676584,-0.05821038,0.09267379,-0.06019887,0.2339553,0.01248515,-0.06567452,0.03413455,0.07976016,0.03676421,-0.007313506,0.04349183,0.08487815,0.09105647,0.04624346,0.01258805,-0.04361508,-0.04335835,0.1451475,0.07717465,0.008021513,0.2379917,0.04573188,0.02138247,0.009303715,-0.04600728,0.1375823,0.1913987,0.08553773,0.09243193,0.03600272,0.1786698,-0.05487589,-0.05490431,0.07636717,0.07572685,-0.01811372,0.1641011,0.08948363,-0.04790986,0.02749592,-0.09927224,0.1836512,-0.1247772,-0.1161796,-0.043419,-0.07834954,-0.1201129,0.00929861,0.1266661,-0.06140181,0.2515235,0.1606828,-0.02019821,-0.05369201,-0.05736005,-0.1401071,0.19586,0.07837123,-0.02198705,0.04713427,-0.1374033,0.1582215,-0.03819405,-0.05865418,0.05637882,-0.09928763,0.1306448], [-0.06098876,0.1589513,0.0793018,0.05316629,-0.09760143,0.001986433,-0.03618831,-0.005478009,-0.06166928,0.2106974,0.07322446,-0.1411183,0.04532158,0.05724572,-0.08743931,-0.06874648,0.02731372,-0.07777677,0.1185837,0.05157948,-0.07703043,0.07651705,0.1619255,0.1148819,0.07540492,-0.1997914,0.01036548,0.1079683,-0.06874791,0.06261492,0.05173795,0.1847843,0.06004469,-0.01493904,0.006765087,-0.07746993,-0.02470185,0.1084597,0.0727048,0.02879261,-0.001460252,0.04379691,0.06286336,-0.07152697,0.004540349,0.07710476,-0.04713345,-0.02052742,0.104008,-0.2438075,0.1307608,-0.1294509,-0.003065639,-0.02245397,-0.2864505,-0.06845015,-0.01221524,-0.05658432,-0.03074114,-0.03828849,-0.1599606,-0.2030776,0.1246571,0.1038924,0.1567029,-0.0202857,-0.1092499,0.000952555,-0.1550081,0.08698589,0.03353483,-0.001393357,-0.02930458,-0.09304737,-0.1030328,-0.09371328,0.1027939,-0.2824735,0.03729664,-0.04322655,0.1223576,-0.1719614,0.009972517,0.03410898,0.07930263,-0.03564035,-0.1133167,-0.1437987,0.1133171,0.1972523,-0.03904124,0.0211497,0.009526934,-0.02869302,0.1236051,0.1209641,-0.05147281,0.1535716,-0.02450699,0.06875151,-0.06004987,0.08378993,-0.2372888,0.1553859,-0.08057407,-0.2384594,-0.0911315,-0.01504685,0.005050651,0.1367823,-0.07546658,0.02651344,0.235952,-0.06954794,0.1714496,-0.01592325,0.009547745,-0.02642646,0.01916069,0.01149017,-0.03754391,-0.1521791,0.1030279,-0.0156305,-0.1551678,0.01495919,0.03907369,0.09780398,0.02845827,-0.009730447,-0.1942718,-0.008388366,0.1177094,0.1354975,0.1625145,0.03387848,-0.04282015,0.1208126,-0.03228395,0.004507346,0.0257165,-0.07850826,-0.03104088,-0.1551279,-0.139989,0.04157906,-0.10606,-0.02903615,0.1078167,-0.00049858,-0.1046925,-0.08121558,0.000496697,-0.1180042,-0.2109952,-0.03108127,-0.05779111,0.0183255,-0.05489697,0.07819726,-0.008078827,0.1669845,0.0270016,0.1689842,-0.02764983,-0.1110168,0.06044725,-0.155517,0.06439702,-0.04926417,0.114283,-0.1432579,0.1546148,-0.04219703,-0.02014786,-0.08976313,0.07803224,-0.1401845,-0.03468832,0.04196836,-0.135849,0.06635588,-0.002192269,-0.1419215,-0.04783617,-0.05040913,-0.08380764,0.03447885,0.07487413,-0.08889331,-0.03662555,0.05268376,0.003280221,0.03603088,0.006258111,0.1608373,-0.1091524,-0.00960801,0.01217756,0.01425173,0.02054253,-0.06669381,0.02644351,0.08595777,0.1147228,0.02687343,-0.1583497,0.03862267,0.06117953,-0.04014706,0.03193246,0.1012342,-0.02948562,-0.02368539,-0.04473702,0.06790318,-0.1312403,0.0285437,0.02975447,0.01607398,-0.09943503,-0.03337567,-0.03884548,0.0636135,0.1054276,-0.06981538,-0.0470424,0.007002398,0.0410368,0.09995844,-0.08341613,0.2410479,0.04300831,-0.05072856,0.01469101,0.06794593,0.07452242,0.2668704,0.03920397,0.02564541], [0.1158675,-0.04721239,0.06235326,-0.08462559,0.02747116,0.122195,-0.1087535,-0.1658489,0.0257618,-0.05145529,0.05631074,-0.0368618,-0.1060158,0.05474723,0.06572367,0.2131452,-0.121567,0.1050459,-0.02475491,-0.02044727,-0.04979672,-0.09228177,-0.1697361,-0.1024904,0.03542462,0.05897778,0.08153259,0.1152291,0.01493104,-0.09552118,0.04328875,-0.1407681,0.005908562,0.06222777,-0.01996419,-0.05085321,-0.1191004,0.06894809,0.1174962,-0.01847624,-0.01201838,-0.05536951,0.1091662,0.04550071,0.009185575,0.1405184,0.08942054,0.000129786,-0.008531308,-0.0365302,0.1135114,0.08496216,0.02147678,-0.06521636,-0.0552251,0.02637746,0.08190598,0.1373797,0.01698996,0.04174954,-0.03938665,-0.1167208,-0.04209549,-0.07266051,-0.0307594,0.0634521,-0.07690158,0.01102968,0.02919791,-0.0610149,-0.02531538,-0.1256484,-0.1434427,0.01510767,0.06136675,0.06857316,-0.06435261,-0.01535286,-0.04794538,-0.09719583,0.03701611,-0.06550786,-0.01707668,0.01542127,-0.03712126,0.1481699,-0.1260524,0.05827089,-0.129555,-0.001061898,0.08592443,-0.02401725,0.1160698,0.0536987,0.08555344,-0.06012242,-0.06264392,-0.008267557,-0.1672543,0.003716657,0.1228392,-0.01476052,-0.09960736,0.2229607,0.130396,-0.129425,-0.1575775,0.01800267,-0.1243947,-0.07302263,0.03943342,0.02770759,-0.07948656,-0.06644222,0.1024944,-0.05729926,0.009740464,0.03500827,0.1039765,-0.08748007,0.09440558,0.07222762,-0.05072071,0.03667133,0.03111218,-0.06497172,0.05048491,-0.02425159,-0.03954452,0.1139541,-0.09359699,0.05197737,-0.01242486,-0.03583585,-0.1138239,0.01155708,-0.08759634,0.1864514,0.08343258,0.1310111,0.04036588,-0.0171787,0.04587239,0.1213056,-0.1194086,-0.09838197,0.08053668,0.1172794,0.02757951,-0.1121083,-0.09286256,-0.08066933,-0.01742896,0.09582671,-0.05784267,-0.0742666,-0.08881962,0.03178398,-0.02776842,0.02929472,-0.1304061,0.02617403,0.1196708,0.002516721,-0.01014065,0.1084845,0.03557325,-0.09138434,-0.05034523,0.03705996,0.09714121,-0.2205351,-0.05787437,-0.0172477,-0.009242534,0.06322952,-0.07506324,-0.09693623,0.02960641,-0.04399698,-0.02450852,-0.119162,0.1042557,-0.1172774,0.05676163,-0.0682317,0.1288458,-0.1122599,-0.1058961,0.1497817,-0.07198582,0.0223611,0.1332721,-0.07703716,-0.03759522,-0.1212466,-0.004918118,0.003415182,0.1610449,0.04135629,-0.04400381,-0.009406621,0.08402827,0.0242271,-0.05055736,0.01804128,0.01479903,0.06776283,-0.08326474,0.02243243,-0.1924036,-0.04083835,0.1385184,0.1007973,-0.005567046,0.08301358,-0.06445748,-0.0155662,-0.1910512,-0.09620912,0.176497,0.02851861,-0.1300986,0.0213548,-0.08043994,-0.07851662,0.1078803,-0.001503587,0.1526777,-0.01339509,0.03758988,-0.1672142,-0.03475051,-0.03705197,-0.009914817,-0.04555715,-0.02818001,0.06759669,-0.3550351,0.2363995], [0.1535655,0.06714675,0.02618151,0.001151232,-0.05585778,-0.04089841,0.009069283,-0.07194323,-0.08817068,0.0138941,-0.06564709,0.05069885,0.05467635,0.1057443,0.04492633,0.04939708,-0.229685,0.104615,0.02861078,-0.1462605,0.1607453,0.08991888,0.03146607,-0.07485124,-0.0630376,-0.1381199,-0.1464996,-0.02370257,-0.1150827,-0.01006762,-0.05594809,0.1057576,0.1008662,0.05833181,-0.03835064,-0.08905175,0.05963015,-0.1189145,0.03722901,0.05428186,-0.08318215,-0.0393041,0.02519557,0.0644441,0.1417694,0.0969098,0.153053,-0.04786712,0.09753466,0.07479766,0.01546048,-0.2334916,-0.02245768,0.04438898,0.03447576,-0.0583486,-0.04995385,-0.0818395,-0.08173911,-0.1249727,0.05225259,-0.03739486,-0.1275903,0.1950033,0.0118641,0.006908411,0.1920851,-0.02402367,0.02334218,-0.01625969,0.01400324,0.09396974,-0.01988966,0.05646252,-0.06584904,-0.08951404,-0.02709788,-0.05939649,-0.1696386,0.1997928,0.134545,0.06667532,-0.08491661,0.09951454,0.1475834,-0.02565041,0.1068089,0.07642456,0.01056968,-0.1633499,-0.0888998,-0.07183558,0.02764533,-0.05617822,-0.1062717,-0.01900788,-0.02020825,-0.03353354,0.08501084,-0.05497271,0.05043803,0.1075752,-0.0904673,0.05987336,0.06864822,0.1712991,0.06324131,-0.0224933,0.08352317,-0.04069473,0.2186451,0.002864155,-0.002029561,0.1325677,0.1040924,0.1049218,-0.00993132,-0.04414924,-0.000256163,-0.1411308,-0.0286413,-0.006660333,0.01795457,0.09476765,-0.0832978,-0.03465114,0.07682002,0.02437858,-0.1692649,0.05847786,0.02740806,0.02027799,0.08959989,-0.08711632,-0.1593432,0.03283232,-0.1343501,0.1432045,0.1553339,0.0288475,-0.03236002,-0.05501324,0.11862,-0.01695952,0.04003346,0.1511313,0.08848944,0.006208469,-0.1367654,-0.05506643,0.07325967,0.09381925,-0.02994963,0.1859278,-0.08423594,0.151278,0.05753089,-0.0372379,0.06124625,-0.002834211,-0.08109072,0.2236891,-0.01206169,-0.001082065,0.01665581,-0.02025751,0.0497133,-0.1558069,0.02099022,-0.02412358,-0.008457415,-0.0685171,-0.01990241,-0.06341793,0.04478181,0.005044394,0.1409334,0.09611336,0.008934148,0.07041357,-0.002299695,-0.02455189,0.1046616,0.09986161,-0.1129191,0.01617927,0.08258712,0.05664675,0.1179956,-0.008028105,-0.1443765,0.1993411,0.1023654,-0.033594,-0.009003142,-0.07089816,-0.0612575,-0.05302558,-0.007840571,0.02040116,0.05647535,-0.03797789,-0.07347187,-0.03307291,0.04890766,0.1832683,0.1920026,-0.06908324,0.004810737,-0.07060818,-0.0704544,0.1335141,-0.1488231,-0.1085737,-0.1131671,-0.01590248,0.2018358,0.126724,0.08744015,0.03799432,-0.06513342,-0.08164793,0.0206845,-0.01469292,0.1559612,-0.0347212,-0.1139202,0.1228745,0.01875032,-0.1427422,0.1485998,0.01309383,0.0539301,-0.08073519,0.1115338,0.1704995,0.158146,-0.03712449,-0.04364762,-0.04660543], [0.140621,-0.2582976,0.0205972,0.08347118,0.009798353,0.1392691,-0.09214953,-0.05510633,0.01712956,0.03875901,-0.09216951,-0.001215152,0.1223269,0.003772811,0.1178357,0.1455421,0.1082904,-0.008085524,-0.04199092,0.000325691,0.1795679,-0.07030752,-0.03038219,-0.01828756,0.04582085,-0.021524,-0.08341178,-0.01804031,0.0932505,-0.01200516,-0.1251094,0.09316856,0.02622025,0.004035905,-0.03376437,-0.01497171,0.06986348,0.03951608,-0.05445667,-0.08124217,0.00754723,-0.1573734,-0.01650972,-0.05067679,-0.2077145,0.1264934,0.04117403,-0.04098078,-0.03218351,-0.003822017,-0.04053004,-0.03611442,0.04183997,0.04062258,0.03505628,-0.1220941,0.01447352,0.06067907,-0.01707819,0.01656771,-0.04543363,0.1074484,-0.1213161,-0.01602133,-0.1134611,-0.05820717,-0.01686536,0.1715664,-0.1321361,0.1083856,0.02073747,-0.0120093,-0.03052787,-0.0049957,0.1456979,0.03199698,-0.08603658,-0.03353338,-0.05415456,0.1019532,-0.09015492,-0.09576105,0.002337387,-0.11578,0.08906104,-0.02661249,0.0860892,-0.09016978,0.006486648,0.002969407,-0.07439455,0.06119373,-0.01353764,0.1048955,0.05011144,-0.03150868,-0.03400851,-0.1005704,0.0782653,0.129319,0.07165786,0.0862553,0.04262456,-0.1119269,0.0466052,0.03436355,-0.00958175,-0.1190192,0.04570165,-0.1334181,-0.08594441,0.058112,0.03538869,0.1235633,-0.004881022,0.03267777,0.2690496,-0.03825089,0.009143546,-0.05848113,0.02911581,-0.1007969,0.05630676,0.01039335,-0.1439478,-0.05230327,0.09704455,0.01922936,0.09043869,-0.01084368,-0.06998664,0.03834247,0.09046405,0.1008092,0.08687264,-0.04271806,0.03928097,-0.03063483,0.04938784,-0.07560173,0.05735335,0.03773551,-0.02171684,0.0348259,-0.09805081,-0.1606609,0.09186446,0.02378331,-0.00835825,0.07545092,-0.04955455,-0.04684661,-0.2214682,0.08028381,0.0725221,0.04226262,0.1045703,-0.03769137,-0.1716857,0.1057248,0.1777597,0.02213042,-0.206597,0.006655924,0.01532035,0.1181408,0.05054223,-0.07719968,0.006787559,-0.06740776,0.1212531,0.02304808,0.1331678,-0.03195876,0.145135,-0.03297389,0.1635223,0.04687722,-0.2236609,-0.0344897,0.04786097,0.02207771,0.03218994,0.02395027,-0.002556871,0.04600002,-0.03626949,-0.07780997,-0.01922515,-0.1074511,0.1136403,0.2321784,-0.09867547,0.07141368,-0.05112255,-0.1087859,0.01122134,0.06846013,-0.02954663,-0.1150431,0.05718439,-0.07827797,-0.2769273,0.02305083,-0.09970135,-0.1422381,0.01176838,0.1877093,0.1790518,-0.01462511,-0.1070977,-0.05569231,-0.05236971,-0.1653341,-0.08379413,-0.01787182,0.1510307,-0.1003383,-0.02665554,-0.01421384,0.06900787,-0.08042582,0.05869579,0.006220316,-0.1540358,0.116444,0.02687935,0.02022866,0.07727512,-0.03945496,-0.09462113,0.1745027,-0.2164218,-0.04519173,-0.05566924,-0.2042557,0.06704079,0.1905368,-0.05552779,-0.007053564],[-0.08616666,0.2016427,-0.01241269,-0.02673975,-0.04596458,-0.01700078,-0.1639861,0.01406463,0.3111489,0.1168768,-0.02478087,-0.03428071,-0.000560548,-0.03198205,0.09491708,-0.05432086,-0.01487813,0.1138567,-0.03359967,-0.1254692,-0.05899441,0.1004435,-0.01921944,-0.1556003,-0.05989058,-0.1062191,-0.1267195,0.03598157,0.1606715,0.07191902,0.02982219,0.004554571,0.1128235,0.06389191,-0.008345352,0.02934309,0.01260653,-0.1650791,0.03365858,0.0349487,0.04250683,0.1298984,-0.1027732,-0.06975632,0.02866537,-0.03391348,-0.1142118,0.06224222,-0.05160707,-0.01975297,0.09074757,-0.05189213,-0.1445142,0.09031261,0.02369514,-0.06200371,-0.1312904,-0.1357725,0.06900135,-0.03092679,0.03942856,0.1235336,0.03404992,-0.09195686,-0.1496001,-0.07862074,0.02109075,0.1076918,-0.02193171,0.1330119,0.1018345,0.06680783,0.2394409,-0.124138,-0.03206986,-0.1099003,-0.03554331,-0.01287129,0.1068578,0.04977619,-0.0487802,0.1515827,-0.2371839,-0.08948717,0.009129108,-0.05857756,0.09491485,-0.058159,0.01881699,0.05493519,-0.1000611,0.009203174,0.0932246,0.02419497,-0.07599498,0.1366581,0.09171142,0.04807417,0.1270594,-0.1753912,0.01062195,-0.03896426,-0.02759309,-0.02514008,0.003690589,0.0434407,0.09300434,-0.09779833,0.01382511,-0.06552391,0.004521746,-0.02192095,-0.10828,0.05959786,-0.1187317,0.03167653,0.09766883,-0.03711076,-0.03978806,0.00098743,0.05099013,-0.1129728,-0.09493589,0.05055123,-0.02162972,0.01303086,-0.09031691,0.0863994,-0.0600854,-0.03657341,0.08597088,-0.189715,0.02313497,0.2040892,-0.07219937,0.07813916,0.1006709,0.1112589,-0.1164458,0.1950483,0.0271999,0.07325137,-0.02061868,0.1690203,0.01041938,0.02949497,0.1631873,-0.08156216,0.02463159,-0.07753062,0.134739,-0.08241919,0.1092121,0.06070369,0.04225024,0.08421329,0.04970691,0.1688941,0.03933583,-0.1049364,-0.04375853,-0.0316946,0.08221092,0.2010333,-0.05514226,0.09813949,0.07650909,-0.1007426,-0.1713458,-0.04913428,0.108215,-0.09663393,0.09535976,-0.05316442,-0.0597682,-0.1094716,-0.0447401,0.09950691,0.1369281,-0.08715215,0.03318605,0.02941961,-0.1031889,0.06325004,0.06515597,-0.01315142,-0.1867479,0.1104148,-0.1698655,0.1093141,0.08344444,0.1358402,0.05384121,0.05192741,0.05809752,0.03136427,0.1312411,-0.1027204,-0.1223539,-0.05818871,-0.2088883,0.1499878,0.02065523,0.1012683,-0.093086,0.142427,0.1203063,0.1671794,0.07251151,0.03047229,0.00499351,-0.02101775,0.1133487,0.06101345,0.0221662,-0.004004888,0.07506679,-0.01798914,0.01291247,0.05679732,0.102198,-0.04414684,0.2196667,0.02300084,0.06211179,0.1240252,0.02417072,-0.1480517,-0.0467683,0.1908631,0.1313966,0.09747455,0.1736086,0.214983,0.1576103,0.04553701,0.1325454,-0.05744101,0.04289685,0.001903416], [-0.05861499,-0.1027687,0.07444755,0.09926778,-0.01054325,-0.0501376,-0.01811909,-0.07152023,0.004980639,0.01875087,0.000440531,-0.01985947,-0.1519358,-0.1902909,0.01088807,-0.08593038,0.04973808,0.02466314,0.07626983,-0.01607576,-0.03406091,0.08168786,-0.1475249,0.05433994,-0.000113362,0.02112153,-0.1259747,0.1514253,0.04293979,0.089377,0.03068603,-0.08567783,-0.004672079,0.1439728,0.04258063,0.07716491,0.04670741,0.02132775,0.0193499,-0.01805806,0.1281872,-0.1669895,-0.00567575,-0.2622565,-0.1174465,0.08193653,0.01504022,0.008157436,-0.1196484,-0.01353248,0.0133448,0.06502442,-0.1196625,0.1217992,-0.0872461,-0.04435978,-0.06587336,-0.0278538,0.0458767,-0.1582094,0.05973631,-0.07681363,-0.02382664,-0.1246852,0.1140271,-0.09356455,0.009424994,-0.0497104,0.004082953,-0.000235834,0.08501506,0.02121788,-0.09903947,-0.07324497,0.04057989,0.003605382,0.09353849,-0.1309704,0.06226029,-0.006848281,-0.0180049,-0.140931,-0.1847709,-0.03448022,0.00881971,-0.04628297,0.05441134,0.08432021,0.00556891,0.2274398,-0.005082883,-0.01005498,0.002575282,0.1237769,-0.113548,0.1247145,-0.03809723,-0.0889255,0.1927513,-0.1071155,-0.156093,0.002746219,-0.09702991,0.1977948,-0.09170472,-0.1204682,-0.06258438,0.03519271,0.06143371,0.1113535,0.04263661,-0.11156,-0.1338972,-0.1471147,-0.06439137,-0.03563386,0.1561,0.1079434,0.02072004,0.1047791,-0.07863639,-0.08523808,-0.1375842,0.1644447,0.05749982,-0.05621888,-0.1172204,0.1178926,0.01748164,-0.09795325,-0.04984712,-0.07784977,-0.1188056,-0.01469709,-0.1716314,0.0271431,0.01653232,0.002894479,-0.01781763,-0.05454421,-0.1248718,0.04034534,0.02936195,0.008128638,-0.140441,0.06882039,-0.1284714,-0.1447397,-0.04432249,0.08456122,0.09367169,-0.03867025,0.07061581,-0.1018521,0.2641932,0.1091219,-0.02575546,0.1360795,-0.1289745,-0.1473189,-0.2031139,-0.1862968,0.04394693,-0.03591573,0.1000175,-0.03362199,0.05577374,0.1592052,0.02876932,0.2261623,0.02454538,-0.03219254,-0.2139928,-0.03195671,-0.005309607,-0.07746698,-0.06924053,-0.0553964,0.0793364,-0.0797357,-0.1024902,0.01112958,-0.04552499,-0.102483,0.04602527,0.1494276,-0.004478393,-0.01677446,-0.1256513,0.05789667,-0.05821519,-0.09938524,0.07513413,0.07938466,0.107997,-0.1512804,-0.01558511,0.00083748,0.05996778,0.008867261,-0.01728753,0.01787908,-0.04054048,0.1055791,0.08289735,0.1329138,-0.05520019,0.2291121,-0.0454926,0.01174987,-0.06089613,0.01707212,-0.06459402,-0.03914694,0.04865283,0.05771517,-0.01277117,-0.129228,0.198088,0.069387,0.0519234,-0.05708872,-0.02918074,0.0147211,0.09954984,0.02475786,0.06631723,-0.07859793,-0.08261897,0.04274867,-0.1166115,0.2019589,-0.08230917,0.05395848,0.1754724,0.1036759,-0.01372305,-0.027397,0.03159755,0.1131928], [-0.008175236,-0.06899162,-0.07662664,0.03701356,0.1029192,0.05681944,-0.1514676,0.01427952,-0.04880365,-0.01948005,0.01461151,-0.08743238,-0.02432866,0.1172258,0.06403469,-0.101299,-0.09294236,-0.1311089,0.04771431,-0.05351699,0.07683966,0.1153145,-0.1193543,-0.06042577,0.0589116,-0.06869235,0.06866167,0.07431941,-0.1835956,0.08373471,0.06078633,-0.03901857,-0.1415222,0.004005567,-0.04832238,-0.04452484,0.05115842,-0.01819987,0.03952205,0.1695348,-0.05230779,0.06837793,0.1072582,-0.1412319,0.03227898,0.131345,0.001332253,0.006809107,-0.0323981,0.02854497,0.03301852,0.03007978,-0.3179412,0.1275634,-0.005052635,0.06185768,0.06508864,-0.01491943,-0.09276378,-0.2300486,-0.06004588,-0.06916805,0.03608377,-0.03667204,0.06161484,0.08354937,0.09429298,0.06632116,0.06329697,0.05040002,0.07820689,0.09285878,-0.04886813,0.1509424,0.1552891,0.1329247,-0.09916323,-0.1555113,-0.057478,-0.0246382,0.02394056,-0.1249326,-0.04108147,-0.02446192,-0.1065953,-0.02321177,-0.02727821,0.1868603,0.01505408,0.1439463,-0.06642308,0.0324817,-0.07467964,-0.03483678,-0.06015275,-0.06402982,0.053105,0.06763113,-0.01197442,-0.08505767,0.1750815,-0.144567,-0.04128246,-0.00970546,0.202358,-0.04830551,-0.05285834,-0.03627912,0.06400017,0.03290746,0.02692147,-0.0795931,0.002311878,-0.05165927,0.1322682,-0.08952732,0.1405946,0.06937665,0.03941879,0.1043246,-0.03201009,-0.07731618,0.07145507,-0.01041593,0.09544417,0.02438542,0.1229725,0.07208966,0.08791066,0.08171256,0.02229884,-0.02651341,0.07469337,-0.06983873,-0.002465703,0.04322802,-0.05752857,-0.01167879,0.1027531,-0.04529847,-0.1098451,0.04235179,-0.05914442,0.1035826,-0.03842638,0.01323175,0.03751536,-0.2122336,0.03286806,-0.0706343,-0.08479735,-0.05132507,-0.002835566,0.05470522,0.1831357,0.1212719,-0.1362761,-0.09911184,-0.007185353,-0.01869193,-0.01977484,0.1204512,0.04966271,-0.02192136,0.1842407,0.1659125,-0.03905313,-0.06534376,-0.05579005,-0.009855812,0.004159549,-0.0268794,0.08601782,0.07179078,0.03591442,0.08824317,-0.2288438,-0.1877813,0.0665748,0.1146431,-0.164343,-0.15795,0.05733531,-0.0634961,-0.04534358,0.08169229,0.02365111,-0.05328023,-0.05669237,-0.09476272,0.08603176,0.04464551,-0.0449765,0.1819059,-0.0705144,-0.009772584,-0.2121776,-0.08094531,-0.009349974,-0.05094439,0.2019779,-0.0100354,0.1053998,0.09593923,-0.0175197,0.0968693,0.08695403,-0.1486194,-0.03618419,0.1094353,-0.2209194,0.07558415,0.07410972,0.1502823,0.0468851,0.005536831,-0.04573399,-0.1515688,0.04948152,-0.1025818,0.01379702,-0.1379811,-0.01724554,0.0283231,-0.02468683,0.01748141,0.0518937,0.02159697,-0.1447396,0.03798087,-0.1194219,-0.1608464,0.03718322,0.02260616,0.01852145,0.001514786,-0.0450208,0.08223218,0.09750577,0.01914446], [-0.01774572,-0.02462269,-0.03475855,-0.0563742,-0.07753842,-0.08748894,-0.03692335,0.07601478,0.05013828,0.04195729,0.1127594,0.098042,0.1276566,-0.0376831,0.04045545,0.04927756,-0.04593298,-0.08618736,-0.1663812,-0.01808558,0.04469919,0.03694822,0.1149361,-0.03438967,-0.1781505,-0.04415406,-0.07080928,-0.153044,0.1401826,0.08463582,-0.1662938,-0.03473173,0.04045656,0.1438021,-0.1218035,-0.0911891,0.000349048,0.06527641,0.126864,-0.01413745,0.01460794,-0.1070287,-0.02017431,0.07641386,0.1155479,0.1036614,-0.2557085,0.07774881,0.105287,0.0359295,0.07563969,0.05491706,-0.0119009,-0.1798026,-0.08301163,-0.09438244,0.03375741,-0.04680314,0.1015392,0.08714861,0.06108604,0.04187234,0.09051678,0.01329417,-0.008737082,-0.04024316,-0.07351694,0.1254406,-0.06888118,0.03117572,0.01521609,-0.05169863,-0.08599257,-0.04215452,-0.000837761,0.03025229,0.04346542,0.07481573,-0.08256252,0.2133973,0.04399851,0.06297867,-0.1546519,0.008175409,0.06273299,-0.1597605,0.1277619,-0.004520282,-0.09285468,-0.0088151,-0.04292813,-0.04043702,0.0898442,-0.008703017,0.01149173,0.09333701,-0.08523364,-0.1876289,-0.0420483,0.07951411,-0.06720667,-0.05372946,0.07246827,0.01734044,0.1220448,-0.1626355,0.05215998,0.03559151,0.03586496,-0.07069863,0.08266088,0.07826733,-0.06315256,0.0591179,0.00873376,0.03241335,-0.02441809,-0.0652744,-0.08115782,0.0439674,0.1751643,-0.01105636,0.03444758,-0.05193345,0.11243,-0.07681303,0.08792901,0.003529881,0.05227504,0.07928218,-0.05423757,0.05919778,0.01000975,0.03189172,0.1685195,-0.01100668,-0.1026881,-0.09642109,0.04784211,0.05235831,0.1086188,0.05082445,0.1340757,-0.02762776,-0.08354831,-0.08545696,0.1455743,0.1852344,0.1179494,0.1796069,0.03589623,0.1143488,0.2126442,0.1391514,0.1363091,0.236747,0.08623479,0.05782608,0.1036069,-0.001535038,-0.1091066,0.04811626,0.05093276,0.03198746,-0.115913,0.1073043,-0.07184441,-0.08594845,0.01633194,-0.03717325,-0.04710544,0.06658091,0.1453135,-0.001782168,0.04887775,0.003803228,-0.02591881,-0.02146829,-0.000884785,-0.05607508,0.03534681,-0.02609218,0.08763328,0.03175216,0.04954559,0.1084274,0.07417965,0.08638685,0.0336821,-0.1465804,-0.05356096,0.08660911,-0.1022084,-0.111511,-0.009514634,-0.1352539,0.05343585,0.01282643,0.04901453,0.001963689,0.0348588,0.184839,-0.1601538,-0.08626622,0.01424389,0.03093145,-0.03155722,0.0230336,0.08916752,0.1180325,-0.0343479,0.1051838,-0.08156378,-0.09240147,0.03919529,-0.06785029,-0.02394707,0.1202776,0.1023766,-0.01462644,0.0503732,-0.00488549,0.03260074,-0.09589569,-0.1477086,-0.06882815,0.09146652,-0.1061603,0.07950185,0.1532782,0.07349854,-0.006540923,0.05495921,0.01794929,0.0547074,-0.107784,0.02312322,-0.1969436,-0.04938951,-0.005190807], [0.006163917,0.01911551,0.005952055,0.1236114,-0.2124878,-0.05406522,-0.1979512,-0.04402653,-0.04433044,-0.1381483,0.1537492,-0.0417138,-0.04240739,0.01893993,-0.05141712,0.02129875,0.04073486,-0.09561261,0.0225327,0.1187176,-0.1114306,0.04178576,-0.1259839,-0.08149547,-0.04623519,0.1266747,-0.06042383,-0.09803297,-0.08017345,-0.004750268,-0.02224067,0.02051829,0.00381088,0.1317304,0.04022187,-0.001901928,-0.00580932,-0.04256481,0.01602041,0.008421919,0.1007607,-0.02374077,0.03045771,0.1563795,-0.1250532,0.1400983,0.001035273,0.03014935,0.04995718,0.05075241,-0.1399569,-0.06365531,0.1499245,-0.01163386,0.1248513,0.04501481,0.121139,0.08326388,0.1002547,-0.04578062,0.02970025,0.08503176,0.05134557,-0.03429808,-0.04827192,-0.08472975,-0.07166459,-0.0785208,-0.06565151,0.05227678,0.02297703,-0.1445342,0.167638,-0.02706983,0.01725496,0.05372878,-0.03537102,-0.04460337,-0.1144715,-0.06423331,0.06485885,-0.116757,-0.07778832,-0.02199425,0.02707039,0.1024458,0.1288151,-0.005233603,0.02204357,-0.0844404,0.06156674,-0.06711636,0.005614894,0.2061543,0.08514957,-0.0348542,0.1531311,0.06134302,0.006159868,-0.1025212,0.03119987,0.05354229,-0.03034228,-0.06993226,0.1378253,-0.1274564,-0.01725593,0.07831135,-0.2441194,0.06127476,-0.03137749,0.1091877,-0.01094446,0.04477039,0.06758099,-0.02952539,-0.05228842,-0.05953913,0.08982399,0.117147,0.0145968,-0.004794965,-0.04685522,-0.1312588,-0.03220567,0.05361132,-0.07449742,-0.08124327,-0.07232691,-0.01549848,0.06117681,0.03280534,0.1454669,-0.08655498,0.08586961,0.02925803,-0.08381979,-0.02264741,-0.05110611,-0.1253966,0.04691104,-0.09947497,0.101487,0.09209111,0.05644452,0.0216869,0.008976888,0.05273952,0.04665167,0.0938319,0.07251466,-0.03428603,0.1175136,0.07811173,-0.03080901,0.06684621,0.0602121,-0.04505634,0.1010245,-0.09266391,-0.06059111,-0.02411172,0.081522,0.04365661,-0.1052615,0.02484414,-0.1309391,0.0613587,-0.04175894,-0.05862233,-0.0405626,-0.04678156,0.01995258,-0.05697655,0.02420087,-0.02710596,-0.04912411,-0.03163871,0.01173642,-0.07035829,-0.03827344,0.06850947,0.05041693,-0.1601363,-0.06685936,0.1044006,-0.04748956,-0.01869371,-0.1085688,0.03819482,-0.05190171,0.08062634,-0.01095885,0.01335157,-0.04960247,0.000967623,-0.03907053,-0.01647244,-0.07750237,0.06089947,-0.07806891,0.02662989,-0.1129148,0.05713293,0.04643267,0.09423743,0.06314456,-0.0282421,-0.01981629,0.08631352,-0.1462559,-0.04098848,-0.0253629,0.004124822,-0.09180465,-0.0712314,0.01806981,-0.02942327,0.08474471,-0.1533751,-0.09661245,-0.1315935,0.02166089,-0.03669649,-0.06250011,-0.09211656,0.0923861,-0.02853308,-0.04566832,-0.07828704,-0.03983675,-0.06023812,-0.1510953,-0.02306759,-0.09362401,0.08583203,-0.04165061,-0.09408414,0.004569661,-0.013855],[0.06677874,-0.08275874,-0.04319987,0.03098039,-0.04005608,-0.01757335,-0.07524472,-0.1016337,-0.06241897,0.03681853,-0.07280048,-0.08465479,0.08640018,0.0108816,0.06416107,-0.05990763,0.195342,-0.01713772,0.0374626,0.1251134,-0.08043189,-0.02274325,0.1279588,0.1978039,-0.05099836,-0.07476128,-0.02890869,-0.08498401,-0.1264474,0.170591,0.007105098,0.03974923,-0.006792438,-0.02630128,0.003877167,-0.1133083,0.025726,-0.07704517,0.000352452,0.05878664,0.08999003,-0.004412511,0.04214205,0.0537219,0.001654934,-0.1388319,0.04987762,0.03650815,-0.06607693,-0.05358386,0.0997246,0.1837437,0.01699518,-0.1018726,0.1231038,-0.06912332,0.04349616,-0.01602877,0.1054208,0.07444598,0.00341873,0.2480058,0.05545863,-0.05044697,-0.1117374,-0.001366889,-0.1606578,-0.0827328,-0.07145989,-0.01838566,0.09985317,-0.03104296,0.06798772,0.130538,-0.01350992,-0.007849243,0.02366565,-0.02681237,-0.07806589,0.0939785,0.05908386,-0.2060724,-0.04151391,-0.05822378,0.08136083,0.004756025,-0.04342854,0.06863084,0.02105792,-0.0240354,0.1207855,0.08127166,-0.09717048,-0.122137,-0.01731233,0.1044544,0.01794996,0.03749891,0.02271238,0.01633086,0.1478543,-0.05415064,-0.1167504,0.05000087,0.04840751,-0.1223132,0.135399,0.03006017,-0.004419068,-0.05037294,-0.06155802,-0.0442569,-0.08080604,-0.04851862,-0.08511698,0.1367347,-0.1408729,-0.1512076,-0.139318,0.246768,0.08418465,-0.05204668,0.1050164,0.08019932,-0.08660481,-0.0126276,-0.002743095,-0.1144718,-0.02160845,0.03863787,-0.1472901,-0.005746133,-0.0738221,-0.06701321,0.06632736,-0.05117121,0.1664569,-0.06566464,0.02519616,0.01776195,-0.02496932,0.07016588,0.08995818,0.04792363,0.005287268,-0.01343029,0.007096319,0.141235,0.1051584,-0.0951568,0.02254889,-0.08269289,-0.0436711,0.02001682,-0.2419207,0.07086976,0.1290062,-0.02808633,-0.07615058,0.02700655,0.04632121,0.161062,0.1156668,-0.09334216,-0.01232194,-0.0329017,-0.08558788,0.1096664,0.1004808,0.0443628,-0.1171803,-0.01956564,-0.02031806,-0.02333688,0.06659618,-0.1025453,0.1558705,0.03424633,-0.09400608,0.07794156,0.01623085,0.1819558,-0.03734369,0.003860641,-0.09938325,-0.02037014,-0.06940915,0.00555344,-0.03094313,0.02816071,-0.03413772,-0.007013299,-0.01749529,-0.05052854,-0.01939167,0.000180921,0.02580515,-0.1081429,0.147466,0.07949906,-0.02889494,-0.000269747,-0.001701165,-0.04533899,0.1774101,-0.1662871,-0.008743805,-0.06813654,0.1394809,-0.004770786,-0.02732423,0.1311284,-0.05686055,0.03439191,0.05658386,-0.04359564,0.1374438,0.007476998,-0.03083007,-0.07889621,-0.09208487,0.008466663,0.2072004,0.04245204,-0.04959625,-0.06027827,-0.03378597,0.101882,0.08805916,-0.04266969,0.1561892,-0.04714406,-0.04191937,0.01085338,-0.006323904,-0.04624524,-0.06365736,0.01657494,-0.03518677,0.1224661], [0.006290637,0.0904596,-0.03057665,-0.1255814,0.02481863,-0.07920129,-0.02204907,0.0138068,-0.01090809,-0.03798733,0.08307026,0.01399512,-0.01812487,0.04110774,0.002097388,-0.1787373,0.07676122,0.01802069,-0.02748165,0.1788061,-0.08586054,-0.1349377,-0.009703447,-0.05606538,0.0433742,0.07641634,-0.1386605,-0.08645705,-0.05872241,-0.07751051,0.1420072,0.0641644,0.07691907,-0.03673973,0.02232685,-0.09591135,0.06388342,-0.02834211,-0.08853491,-0.04655989,0.005689934,0.07085638,-0.05268101,0.002777928,-0.05400737,0.07247514,0.07986856,0.08949593,-0.04028723,-0.08610623,-0.03244392,-0.04286053,0.02437784,0.06758421,0.09305859,0.09724157,0.02798623,0.1142477,0.03968719,0.02713101,0.09468944,0.03321742,-0.144927,0.05471098,-0.0418557,-0.05797038,-0.1307469,-0.02724487,-0.1543438,-0.1323181,0.0152152,-0.05283844,-0.1041082,-0.1149936,0.1455224,-0.1082567,-0.03231381,0.07135934,-0.01767656,0.05506973,0.0345346,0.05322199,-0.02644185,-0.1308469,0.002978929,0.158022,0.1891547,-0.01479403,-0.02819251,-0.09426285,-0.02775485,0.03477442,-0.09527823,-0.05943921,0.01531711,0.2055502,0.001950594,0.05409438,-0.01060649,0.05390426,0.01847975,-0.01056788,0.2788221,-0.04201706,-0.03138072,-0.1668932,-0.0728498,-0.0332079,-0.00806724,-0.1863008,0.002109238,-0.1178271,-0.000261105,0.1445087,-0.1552691,-0.02992236,-0.07774138,0.1059114,0.008036299,0.06171613,0.1189024,-0.007952127,0.03125812,-0.04718097,0.2809376,-0.1880928,0.1721557,0.09962129,-0.0159946,0.02374232,0.1541449,-0.1986259,0.004426359,0.06003239,-0.09216688,0.1458937,0.01555902,-0.0224944,0.08881789,-0.005976392,-0.08865814,-0.08188452,-0.03536089,-0.001948199,0.03189794,0.01549316,-0.05644483,-0.01635647,0.1823238,0.06431455,-0.04591556,0.06267031,-0.1370328,-0.02943895,0.06134378,0.03038143,0.0558137,-0.07134374,0.03546928,0.06039862,0.135069,0.1538055,0.01703746,-0.05111957,-0.189263,0.02618113,-0.05820158,-0.1175946,-0.07783647,-0.03289106,0.1653249,0.01150607,0.03630285,0.05563819,-0.1066721,0.0643414,-0.06841662,0.09147323,0.02849204,-0.1137321,0.1034507,0.06610721,0.02725613,0.03870155,0.03342183,-0.2539644,0.0675747,-0.1718993,0.07657191,0.0176781,-0.1143938,0.2259908,-0.001038419,-0.02957647,-0.02321877,0.02712996,0.003911551,0.006660487,0.08138894,-0.1223292,0.1013573,-0.02052728,0.03272573,-0.06237347,-0.07228885,-0.06363931,0.03904588,0.1295947,0.07302488,-0.01743267,0.01794,-0.04884501,-0.06090598,-0.00246436,-0.03971277,-0.05683262,0.06553433,-0.06027133,-9.56e-05,-0.00126496,-0.02401372,0.0428531,0.03599257,0.002153059,0.06388698,0.09917993,0.1033968,0.05370647,0.01395586,-0.1073322,0.05545794,0.1154474,-0.1454652,0.06065575,0.1625459,0.06582123,0.1246937,0.03680537,0.1619794,0.03852558], [0.08800068,-0.1668138,-0.05370831,-0.05637571,0.1015759,0.07008363,-0.027817,0.04457087,-0.005927072,-0.1460774,0.09074992,-0.08194131,-0.06210444,-0.01535204,0.01937783,-0.1205413,-0.04971812,0.01878976,-0.07563729,-0.03666372,0.06027516,-0.04612165,-0.002842981,-0.001784379,-0.000457519,-0.0704855,-0.09068982,0.06423239,-0.003605896,0.1884099,-0.0881078,-0.008187473,-0.1558545,0.05457694,-0.0358825,-0.1464028,0.1447171,-0.01108142,-0.04715673,0.1083166,-0.08085725,0.1283549,-0.01915006,0.050442,0.09058453,0.01954834,-0.1702842,0.009035973,-0.03145631,0.07877851,-0.1463909,0.004649747,0.08535392,-0.05023836,-0.005631647,0.01345456,0.07126204,-0.05442658,0.09146092,-0.04338691,-0.01516962,0.0808349,-0.04831668,-0.06246811,0.1337091,-0.001956768,0.02048666,0.02977538,0.000170582,0.06103652,-0.1492746,-0.1007875,0.02041417,0.07428221,0.01298071,0.1277058,0.09907027,-0.01818432,-0.04832304,0.06652621,0.04977051,-0.09770583,0.01066085,-0.1359526,0.06699361,0.114952,-0.1677274,-0.06630425,0.02789243,0.1330156,0.1572874,-0.1478982,-0.08328462,0.08814422,0.0152636,-0.02009565,-0.05280515,-0.01811842,-0.03173358,-0.01868925,-0.02481653,0.1234423,0.009297724,0.05079886,0.09661195,-0.1162797,0.1252342,0.002870273,0.03131138,-0.03924442,-0.1825246,-0.08445219,0.005306883,-0.04461954,-0.192579,-0.06387388,-0.02533962,-0.001886186,-0.01799395,0.09585764,0.05052142,-0.05919039,-0.04028112,0.1306538,-0.05355491,0.01695514,-0.1091199,0.181511,0.08667373,0.08330947,-0.02425965,-0.1320334,-0.05066872,-0.02236233,-0.07865783,-0.0272337,-0.1034296,-0.06042355,-0.04042379,0.1841092,0.01710185,0.05208239,-0.1509656,-0.03007324,-0.1114555,-0.03312953,0.09341533,-0.146779,0.1435361,0.2016521,0.08663695,0.03139748,-0.1062828,0.04815709,-0.01425689,0.04925371,-0.04289734,-0.1401264,-0.1244744,0.08291301,0.09970678,-0.0949088,-0.07055523,-0.1514577,-0.05938544,0.145011,0.1365687,-0.07077077,-0.09893198,0.05153072,0.06440657,0.03698911,-0.1093526,0.05737274,-0.02093321,-0.1152287,0.07888313,0.06328856,0.04268365,-0.02618564,-0.008619653,-0.1435889,-0.1269824,-0.09114433,0.0649026,0.113121,0.08027316,-0.1355276,-0.0567796,-0.1972666,-0.08068076,-0.07811578,-0.008713434,-0.05714316,0.150968,0.01349283,0.06630369,-0.05449393,0.0366559,-0.0416653,-0.03081484,-0.02227242,0.0773025,-0.1660718,-0.1272507,0.1012992,0.05784652,0.03181104,-0.02451896,0.1328125,0.1565332,0.1029491,-0.04007081,-0.01333045,-0.02577043,-0.03914672,0.1329792,0.0289395,0.006482871,-0.05165403,-0.2058406,0.06439636,0.1863844,-0.03489555,-0.001801247,0.08743452,0.01181706,-0.03467726,-0.1021293,0.1102864,0.09012591,-0.053281,0.0724142,-0.01149429,0.02891322,-0.02309933,-0.08965035,-0.08767167,-0.01053823,-0.02496037], [0.0349365,0.001697708,0.05042593,-0.08701196,-0.02751304,0.09552851,0.009972514,-0.1212455,0.02301437,-0.04671901,0.08293886,0.02971007,0.00899421,-0.05025049,0.08922958,0.01440927,-0.02221264,-0.0457347,0.0248456,-0.1489636,0.1222868,0.07793773,-0.02796027,-0.02958381,-0.00875546,-0.02012907,0.03412325,-0.02605708,-0.1206139,0.07863988,0.01761099,0.07018541,-0.02707963,-0.05159539,-0.1455349,0.02191079,-0.1484748,-0.1200245,0.09869999,0.05276102,-0.03306011,-0.008176229,-0.1084806,-0.1365344,0.03344134,0.035371,-0.0202874,-0.1046176,0.08367782,-0.01661253,-0.02020751,-0.05239487,-0.02684883,-0.0484066,0.06247571,-0.004215235,0.07686765,-0.1000268,0.05095581,0.08178848,-0.0879272,-0.0324829,-0.01581175,0.03066197,-0.01705144,-0.1651182,-0.0029697,0.01508,0.0337274,0.06057719,0.02115773,0.1070134,-0.1113104,-0.0368943,0.1122278,0.1382661,0.1451846,0.06614649,-0.06680086,-0.005630778,0.1292533,-0.04366423,0.01402384,0.07319959,-0.04750995,-0.1035928,-0.1370549,-0.1113022,-0.04011746,-0.03611085,0.0853831,-0.06530476,0.09052762,0.1208028,-0.09805243,-0.06843466,-0.04076516,-0.2168161,-0.08500419,0.06427256,0.07247444,-0.06048243,0.1451966,0.1061239,-0.1188528,-0.1112509,-0.02409663,0.126278,-0.02176474,0.1831095,-0.01497275,0.09564106,-0.2018693,0.03747658,0.02950714,-0.01883559,-0.005612946,-0.02159775,0.152853,-0.02752996,0.01185797,0.0159819,-0.04022631,0.006258536,-0.06427621,0.08601191,0.03046001,0.02418956,0.1179434,0.1492696,-0.01213837,0.1214215,-0.1673834,0.04715924,0.08465099,0.06440547,-0.1008424,-0.03091004,-0.06695669,0.1126125,0.02297198,-0.100933,-0.07800852,0.04893607,-0.107431,0.0452073,0.02489802,-0.1051411,0.03269285,-0.2426569,0.2835771,0.0681043,-0.1042383,-0.09414219,-0.02518829,-0.003556723,0.04434443,0.1065804,-0.005709086,0.1178405,-0.1537626,-0.02860594,0.1178078,-0.07334401,-0.2063027,-0.07340763,0.08725481,-0.06125677,-0.05434839,0.02574249,0.02955949,-0.08041673,0.04705448,0.06017353,-0.04504166,0.01619659,-0.1542855,0.1109611,0.04730825,-0.026206,0.01620517,0.03550877,0.07511234,-0.03132559,0.03858498,-0.04713738,-0.04117325,0.0396931,-0.07495494,0.04962189,-0.000420224,-0.0230715,-0.03790373,-0.05760388,0.08801353,-0.1286162,0.07296447,0.01434632,-0.03535309,-0.02501736,0.05432099,-0.09705582,0.04196016,0.05724709,-0.06345388,0.1211704,-0.07100394,-0.1858783,0.08851618,-0.07073007,-0.1220306,-0.04547653,0.0678038,-0.09909162,-0.2075934,0.01355409,-0.1061081,-0.01742442,-0.03328948,0.0777072,-0.0360892,0.08203425,0.0800884,0.06444155,0.001799263,0.07678583,0.1119056,0.06747787,0.07691798,0.164716,-0.08545803,0.02590323,0.007174402,-0.1348265,-0.01329662,0.05426816,0.02161089,0.01965209,-0.08226953,0.01035239],[0.02877375,0.004506024,0.137536,-0.216998,0.004751542,-0.06723769,-0.1027594,0.1009088,0.05332113,-0.03644932,0.06631351,-0.02897548,-0.02017589,0.05049833,0.05592692,0.05443037,-0.09009733,0.01475765,0.07662737,0.1033438,-0.02079398,-0.05703837,-0.0699294,-0.001256047,-0.02933123,0.09897385,-0.1423827,0.1286046,0.2927248,0.1154924,0.03541007,-0.02619097,0.0688852,-0.1678706,-0.000372853,0.0127111,-0.1244758,0.01132883,-0.03560096,0.07735607,-0.05823473,0.1054815,-0.131817,0.0814485,-0.0977535,0.09207181,0.08531607,-0.02110669,0.01073883,-0.07543898,-0.07567564,0.1056034,-0.04857278,-0.06126865,-0.07520144,-0.1172493,0.106389,0.04880823,0.05210447,0.06945336,0.05569401,-0.09360405,0.1393255,-0.02643342,0.04897396,-0.1097486,0.06562578,-0.009081722,-0.07896532,-0.03506222,-0.09289403,0.08808883,-0.03752776,-0.06214236,-0.04225952,0.03630513,-0.004989648,0.02703043,-0.1120227,0.1704154,0.0616817,-0.03721827,0.06021861,-0.1829723,-0.1553657,0.05895868,-0.06673384,-0.1428761,-0.05676709,-0.008021413,0.1437625,-0.1738417,0.04131559,-0.0985084,-0.04008745,-0.1020054,-0.05703009,-0.07999946,-0.0082018,0.06512213,-0.04298433,-0.003597525,0.2338044,0.1668029,0.03120108,-0.06677101,-0.02302485,0.06620529,0.004083721,0.02370793,0.1947257,0.08860423,0.06288151,0.1885695,-0.2051536,0.1001919,0.02337451,0.0173324,-0.03425006,0.1101714,0.1182235,0.1422403,-0.04576133,-0.01269602,0.04399109,0.1152142,-0.1259637,-0.006865665,-0.09631786,-0.161504,-0.1294834,0.01163375,-0.09497216,-0.04691277,0.1218172,-0.1780358,-0.06627546,-0.1446994,-0.07174739,0.0345097,-0.1673872,0.09845509,0.03992266,-0.08697987,-0.113175,-0.04746229,0.1115744,-0.1094519,0.1497234,-0.04632052,0.007835191,-0.05658604,0.04917441,-0.1287442,0.155514,-0.00131588,0.02244555,-0.1777232,0.1170737,-0.01714798,0.1611079,-0.1212015,-0.038537,-0.01592242,-0.08369257,-0.08606233,0.06226475,-0.03848941,-0.0383454,-0.01725034,-0.1549408,-0.05330937,-0.1193746,0.05377254,0.08738001,-0.06115751,-0.0413373,0.009191904,-0.06477952,-0.07416285,0.108035,0.09271303,-0.05222982,0.1047717,-0.08796784,0.1775187,0.0420717,-0.0715272,0.1059314,0.04302242,-0.03409656,-0.09730013,-0.155043,-0.04888043,-0.07500676,0.04734381,-0.02428413,0.07497196,0.036924,0.1232307,-0.01220594,0.02380104,0.08131141,0.1162979,0.1194861,-0.08705062,0.01189995,0.06557395,-0.1375259,0.03657757,-0.0154159,-0.01214273,-0.1588515,-0.04925995,-0.09736688,-0.05415228,-0.2024013,0.01440033,-0.02222339,-0.1103126,0.2206095,0.1603155,0.133701,0.08344892,0.08665582,-0.03316945,0.1223636,-0.05314123,0.04097471,0.1023807,-0.06097009,0.1102015,0.1096452,0.05790919,0.1689031,-0.01641778,0.1490172,0.01342384,0.1479349,0.2025832], [-0.05512836,-0.0295323,0.08798578,-0.01240531,0.03391259,0.06820698,-0.001830662,-0.007491437,-0.006352186,-0.0136168,0.02466895,0.07482161,0.05448881,0.1244579,0.09740031,0.1524218,0.07889853,-0.1001135,0.06926663,0.037069,0.03320158,0.004667863,0.04084,-0.00238218,0.1427313,0.03694291,0.1123626,0.04136436,-0.1097121,-0.02647997,0.000788812,0.1569032,-0.2327517,0.01870596,0.05370374,-0.09762429,0.03501925,-0.08598642,-0.1918137,-0.06728526,-0.02458238,-0.1358147,-0.05413901,0.01091802,0.03541322,-0.004890502,-0.07617197,0.1643498,0.000446997,-0.1112877,-0.094089,-0.09418922,0.01248036,-0.09132408,0.1178723,-0.1128237,0.1369393,0.1623876,-0.01001726,0.003376157,0.06554254,-0.000440845,0.01841183,0.04381709,0.01258343,-0.009907831,-0.03997874,0.000816066,-0.07750516,-0.07045684,0.004971811,0.05457183,0.2905408,0.06571531,-0.1304475,0.01130035,-0.1574047,-0.05308166,0.01358227,0.07283653,-0.1272246,0.08482682,0.007868228,-0.001080895,-0.06931452,-0.1274102,-0.02350607,0.1399438,0.06557546,-0.1106882,-0.06720811,0.03099031,0.02921711,0.04311892,-0.006594421,0.07291701,-0.00920876,0.2167044,-0.1008359,0.1877051,-0.04485866,-0.1262239,0.1327716,-0.02844327,-0.04769353,0.08624495,-0.02461031,0.04959444,0.02353803,-0.2018026,-0.0383748,0.05374064,-0.1761595,0.1442283,0.1417065,-0.06629689,0.02145863,-0.1313397,0.3016105,-0.1132878,-0.1165531,0.07917966,-0.1012786,-0.051883,-0.09915245,0.02071192,0.01525244,0.08518548,-0.0932724,-0.0285773,-0.00061908,0.000953399,-0.1790137,0.05268489,0.1011555,0.09086811,-0.01950661,0.04827943,0.04720033,-0.1000031,0.08546057,0.03703486,-0.05836042,-0.08452421,0.09709416,-0.1195723,-0.09426447,-0.2201842,-0.1401195,-0.1179716,0.0471043,-0.1258087,0.007199378,-0.1555787,-0.2781412,0.02072794,-0.1297858,-0.01271924,-0.1699487,-0.04395775,-0.1515981,0.08465597,-0.08259482,-0.05290877,-0.1197755,0.03035712,0.1232852,-0.0116239,0.04931213,-0.08487279,0.112722,-0.08957345,-0.01835479,-0.03940754,0.01673022,-0.001640712,-0.04030849,0.002002219,-0.003120962,0.08697233,0.08439414,0.04943699,0.1604719,0.1317515,0.0544772,0.02558718,-0.01155274,0.02116367,-0.04672074,0.1072858,-0.0231966,-0.0624808,-0.07793122,-0.2081134,0.1150476,0.07905162,0.005686407,0.09513693,-0.01490677,0.03325319,-0.000418404,0.1679957,0.005968492,-0.1985901,-0.09852015,0.06855811,-0.05106067,-0.09351354,0.1269672,-0.0409183,0.1251188,-0.2007093,0.02155645,0.06405231,-0.1670315,0.07854319,-0.03138534,-0.0836459,-0.1693058,-0.06043847,0.03244808,-0.07595319,-0.08847135,-0.02983735,-0.05800363,0.09032796,0.08358257,-0.08482394,0.008049466,-0.1219887,0.191303,0.04809153,-0.08943671,-0.1324488,-0.03838729,0.08177315,-0.1029035,0.003700429,-0.162461,0.1384758], [0.03926875,-0.1576076,-0.1221242,0.0289605,0.05299082,-0.08406719,0.01218847,-0.05337436,-0.08650108,-0.04588298,-0.0356507,-0.113233,-0.03475092,-0.1020369,-0.06193785,0.07600502,-0.04182232,0.0427674,0.2191814,0.03138645,-0.07422762,0.1132829,-0.03805074,0.08337089,0.0218052,0.0570324,-0.1271867,0.04639599,0.07278632,-0.05292858,-0.08151394,-0.04649834,-0.1093679,0.05726049,0.1570853,-0.003758436,0.09557445,0.1185923,0.04395353,-0.05689529,-0.1561831,-0.1065117,0.07312019,-0.06115963,0.06678926,0.07096104,0.05678284,-0.007737163,0.01020882,-0.08244129,-0.0914093,-0.1197177,0.06254806,-0.0245124,0.06756408,-0.01270955,0.06685712,0.1274997,-0.03470421,0.0944313,-0.0723334,0.0263544,-0.1427363,-0.1412599,-0.1203226,-0.07146553,0.04348725,-0.0895671,-0.1046845,-0.1367171,-0.04052892,-0.1712186,0.03473696,0.005466737,0.001758085,0.02106641,0.01069748,-0.02020348,0.0247444,-0.1496394,-0.07394951,0.002282456,0.1049624,-0.006135945,0.1408925,-0.1073114,0.05288121,0.02433111,-0.03304618,0.04663457,-0.03937814,0.02904869,-0.00983084,0.05997993,-0.05938708,0.03886915,0.1235893,0.07649475,0.02990825,-0.1401826,-0.196732,0.05552995,-0.004976493,0.2133695,0.007737496,0.1722386,-0.04459047,0.07358661,-0.01165109,0.05697481,0.03761943,0.08357637,0.02723487,-0.02399176,0.1091997,-0.01340813,-0.1057751,-0.08807053,-0.02256054,-0.0330453,0.1106817,-0.03675621,0.2506136,-0.04640191,-0.06166973,0.1362533,0.02748948,-0.152383,0.01123207,-0.006233319,-0.007233205,-0.02959197,0.1534778,0.03259444,0.0497392,-0.03104067,0.1847843,-0.1142415,0.04434313,0.04893456,0.004281235,0.07376119,0.02692568,0.09095623,0.05342814,0.08459087,-0.07708627,0.06427033,0.002024055,0.03271198,0.1455326,0.02688606,0.1319762,-0.02479901,-0.04738332,-0.2049574,-0.03746833,0.02263709,0.1569693,-0.01072794,0.1549841,-0.02285877,0.07974885,-0.1977036,0.02274411,0.04212729,0.07821873,-0.01636551,-0.02557177,0.08019146,-0.01473856,-0.1313709,0.0651054,0.09779306,-0.1175109,-0.05421368,0.02096416,0.05429763,0.009643326,0.01702926,0.05897962,-0.0856361,-0.03925091,-0.09467164,0.01371676,-0.1014278,0.008776706,0.03942095,0.01795547,0.02472548,0.03934804,-0.03377644,-0.03907888,-0.04229727,0.05119656,-1.11e-05,0.008807223,0.002425486,0.1155725,-0.09245098,-0.02640659,-0.2238834,-0.001156059,-0.1070313,0.01055295,-0.0526768,0.08551033,0.138207,-0.02824551,0.09073256,-0.01667683,0.01341313,-0.1286556,0.0980483,-0.03074056,-0.0289427,-0.1120903,-0.03247469,0.006632145,0.1379951,0.02709283,-0.07851332,0.1410938,-0.09189503,-0.07306372,0.002359219,-0.02998143,0.06357284,-0.07588012,0.06683149,0.05689876,0.1274867,0.08212767,0.02265863,-0.004920643,-0.05589325,0.1064219,0.08129327,-0.05834754,-0.03533153], [0.08421886,0.02103726,0.0147878,0.03615669,0.1024529,0.04171113,-0.06158913,-0.05084173,-0.02738363,0.05216199,-0.05590605,-0.02023668,-0.1262644,0.1444442,-0.04468709,0.05780828,0.1252451,-0.1810687,0.1049789,-0.1269276,-0.03669645,0.1318894,0.03908623,-0.119795,-0.08377966,0.09323403,-0.000359848,0.1786439,0.0670674,0.03686428,-0.06946505,0.05446821,-0.06941345,0.005718343,0.0518595,0.0467981,0.03353446,0.03224768,0.057066,0.03759247,-0.05559842,0.04771952,-0.03367223,-0.01071877,-0.08260097,-0.09082615,-0.09084982,-0.1171846,-0.00720053,-0.04415646,0.05847907,-0.03740771,0.09839837,0.09057976,-0.0337415,0.1078294,-0.01326767,0.09064122,-0.1240924,0.02798335,0.1319406,-0.07928829,0.1484576,0.08178069,-0.1574048,-0.06377646,0.06587713,-0.0847235,-0.02084647,-0.0532447,-0.06631167,-0.1619634,-0.1018151,0.02607566,0.1051739,-0.1305363,0.1205037,-0.09382452,-0.02119158,0.02500043,-0.1805089,0.001281016,0.06911674,0.03810062,0.05335692,-0.03684873,0.05967768,0.02442418,-0.1465427,-0.08836404,0.07972359,0.009393455,0.01218149,0.1163555,-0.1137938,0.07205876,0.04358698,-0.07744495,0.05133253,-0.05338503,-0.02381319,0.0459385,-0.1911217,0.1601866,0.05612497,-0.07605927,0.1486825,0.08337996,0.05716585,0.1753031,0.04292176,-0.005160829,-0.002106295,0.06843794,0.02390901,-0.1355363,-0.03418524,0.01658477,-0.0698363,-0.07810757,-0.1929509,0.01194286,-0.2082837,-0.1175059,-0.1393818,0.06149174,-0.01613741,-0.02563266,0.000339556,-0.1187642,-0.1096624,0.262884,0.02244213,0.04469853,-0.09268957,0.05484573,0.004943587,0.02857291,-0.04351509,-0.03562252,0.03069067,-0.0647797,-0.06113609,0.05634625,0.01733221,0.08518479,0.004068702,-0.09037753,0.05761345,0.07607708,-0.04132558,-0.00898743,-0.1081483,-0.08087505,-0.1883876,0.1059997,-0.05695166,-0.1549605,0.06635161,-0.04172957,-0.08087647,0.02789056,0.09023588,-0.02560254,-0.03460354,0.06852047,-0.03672409,-0.01149215,-0.1731619,0.0636137,0.03118796,0.04177794,0.04264896,-0.2160964,0.04818331,-0.1433943,-0.007067528,0.08048506,-0.009920139,0.06746217,-0.07505767,-0.05093923,-0.03226726,0.03261145,0.00278003,-0.1216015,0.004931877,-0.1687882,0.02439934,-0.08010996,0.06494239,-0.0380583,-0.06265049,-0.09816489,-0.08762588,0.1528814,0.001552259,0.01033494,-0.1108656,-0.05552987,-0.03184362,0.09561894,0.07413749,0.1735506,0.08694579,-0.1481685,0.007251749,-0.1191015,0.03408989,0.04171424,0.1291117,-0.03119413,-0.02746328,0.01191971,-0.08458874,0.03304281,0.02230611,0.1345218,-0.01358325,0.06916634,-0.01832088,0.1032514,-0.08018195,0.09528909,-0.02521851,-0.1030118,0.02332444,0.0891523,-0.1208162,-0.04369762,-0.1365622,-0.05794848,0.02291889,0.06478605,-0.001880284,0.2161118,-0.008347153,-0.03210072,-0.08571308,-0.02653674], [0.1227144,-0.09554686,0.0353188,0.03291561,-0.08050571,-0.08872564,0.326284,0.07185011,-0.02494751,0.001695158,0.02711396,0.008084414,-0.03598898,0.1568013,-0.02929126,-0.03252515,-0.0236328,-0.03099026,0.047258,-0.01039797,0.1201269,-0.02517356,0.0915799,-0.05022802,0.04248678,-0.07260069,-0.06130514,-0.05486137,-0.07223792,0.02385483,-0.04504349,0.1856973,-0.03930476,-0.1069265,0.03534173,0.002003395,-0.1043561,-0.06427001,0.05148313,0.04392347,-0.04978884,0.03167647,0.08454883,-0.01138267,-0.05029253,-0.000435375,0.08879491,0.001543123,-0.1475562,0.03637438,-0.06664393,0.17248,-0.1009846,0.05501156,0.05706106,-0.008187763,-0.122053,0.04606308,-0.01328088,0.0547854,-0.1048729,0.09459088,0.04114699,-0.1056383,0.09081919,0.1564818,0.169659,0.01995772,0.09050085,-0.06604284,0.09586038,0.1300423,0.01350738,0.0187943,0.06012337,5.8e-05,0.005184439,0.0441396,-0.1774493,0.04024319,0.1614701,0.003739928,0.009284255,-0.11084,-0.1242346,-0.1468981,-0.07541025,0.01690631,-0.1567892,0.05207331,0.04991204,0.02991897,0.1121167,0.05608972,-0.1113243,-0.03542863,-0.009615638,0.02995032,0.05087951,0.07527693,0.00413331,-0.1501881,-0.1491369,-0.09006145,0.07578816,0.01413618,-0.08165155,-0.08174574,-0.000603988,-0.01482144,0.02914704,0.004510423,0.01391009,0.1472683,0.08794304,0.002890751,0.1511073,-0.03659233,0.2066269,-0.05731936,-0.1157983,-0.01580142,0.02571749,0.0538758,-0.01750451,0.1912669,0.08712649,-0.1838441,0.01956598,-0.02800472,0.05583055,-0.06408813,0.05639752,0.1054179,-0.01511541,-0.03962912,-0.1110355,-0.05785338,-0.1351895,-0.04984159,-0.1178991,0.0693594,0.02079078,0.04953177,-0.06920976,0.0741861,0.02030692,0.02482105,0.03374089,0.01552907,-0.07450847,-0.007049859,0.03016322,0.107158,-0.1129355,0.06141762,-0.04367949,0.07456449,-0.1179135,-0.00999825,-0.02020107,-0.04324463,-0.04222586,-0.1089534,0.03395726,0.04947545,-0.1006556,0.01669083,0.1101792,-0.02890474,0.1028332,-0.00980199,-0.2114034,-0.0360401,0.01141665,-0.08851118,-0.1632729,-0.02887105,-0.1845734,-0.07790586,-0.01278191,0.03033425,-0.03959445,0.01122564,-0.02554513,-0.05237365,-0.08208482,0.06362873,0.02698855,-0.08221418,0.03737073,0.08723634,-0.1383069,0.007988536,0.09753434,-0.1059507,0.08365206,0.02794391,-0.005259653,-0.06914324,-0.009453341,0.07296616,-0.02763743,-0.04540659,0.2068635,0.1481112,0.02507616,0.02631861,-0.05122996,-0.01401135,-0.000914689,0.05113691,-0.008981152,0.03004562,-0.0418091,-0.04061968,-0.1252119,0.0651741,-0.1474998,-0.1767696,-0.01000689,0.1264834,0.1201288,-0.02624368,-0.1223919,0.09484317,0.005632707,-0.1760062,0.09192382,0.01576245,-0.1373236,0.08086515,-0.01443461,-0.04569651,0.1388131,0.1142097,-0.08558997,0.03116207,-0.05987661,0.04481137]], [[-0.280756,0.3489116,-0.4066168,-0.6173229,-0.142407,0.1173486,0.3406365,-0.3077332,-0.2970151,0.06889878,0.2029681,0.05701479,-0.2404643,-0.1979771,0.1995571,-0.2134581,-0.05686062,-0.369175,-0.1794575,0.2407767], [-0.08007312,0.1658567,0.03037514,-0.2775968,0.09823664,0.5022075,0.3687054,-0.171945,-0.1418047,-0.1451021,0.1871625,0.07540243,0.3201498,-0.6549205,0.01567767,-0.280759,0.115825,0.6387293,0.6661215,0.4619728], [-0.3480825,0.1442802,0.2264298,-0.7837322,-0.188091,0.7301096,-0.2212932,0.6152551,-0.09780958,0.3159338,0.512154,-0.3864524,-0.1600981,-0.6437122,-0.008994467,-0.150885,-0.3356617,-0.02211837,-0.003846777,0.05902994], [-0.5897089,-0.3169825,0.1149903,-0.1250717,0.1259758,0.4254892,0.3379876,0.09479769,0.1974739,-0.588503,0.3099884,0.3345912,-0.411419,-0.02542985,-0.05215612,0.3162231,-0.02647935,0.3531371,0.03474883,0.0252445], [-0.1332053,-0.1182069,-0.1159328,0.2183955,-0.2312937,0.1057896,0.2990128,-0.4630493,0.007142196,0.08403001,-0.2426898,-0.263846,-0.08704086,0.43748,-0.07644606,0.3373894,-0.1052959,0.9193373,-0.2685665,-0.2551123], [-0.03793373,0.06475409,-0.05736988,0.4349849,-0.06394926,0.3229299,0.272661,0.2229965,0.2965743,0.1627952,0.02248376,0.0742496,-0.1631677,-0.1044969,-0.3118089,0.4333619,-0.04771777,-0.2232227,-0.1742874,0.0429021], [0.1656365,0.1722528,0.3974957,-0.5124874,-0.4441546,0.03291754,-0.07457356,-0.1151021,-0.2390363,-0.6634637,0.1153637,0.08981426,-0.2742274,-0.07421456,0.359923,0.1917752,-0.211354,0.0478218,0.2373305,0.08748695], [-0.03049724,-0.1204907,0.3198011,-0.6582144,-0.6024604,-0.04229109,0.02372109,0.2822153,0.1400315,0.2436687,0.1639988,-0.05869573,-0.1851318,-0.5377965,-0.02604542,0.3787213,-0.1668675,-0.9460444,0.02060589,0.1296518], [-0.5485795,-0.5991188,0.177645,0.1252075,0.05992031,-0.1827034,0.6722476,-0.1096319,0.2709514,0.4196655,-0.3610525,0.1540557,0.2051999,0.1244666,0.3243096,-0.5991359,0.06772295,-0.33234,0.2684268,0.4527222], [0.1933133,-0.3016649,-0.4247781,0.04282027,-0.09789141,0.2274855,0.1641298,0.01228313,0.1795703,0.2328402,-0.2338898,0.01708615,-0.02025943,0.04567685,0.1879209,0.02400229,0.1005163,-0.1799864,0.03459092,-0.3600519], [-0.2338634,0.07441107,-0.8150757,-0.3082529,-0.2390105,0.1020605,-0.4813303,0.4025872,-0.221262,0.5277062,-0.08659322,0.670229,-0.4950331,0.2353583,0.04596527,-0.8224195,0.2219831,0.3039282,-0.1728947,0.1807179], [-0.391406,-0.05816207,-0.2811972,0.1964039,-0.02083558,-0.3437037,-0.02889214,0.1055929,0.1781217,0.2161078,-0.02652422,0.4733433,0.4608098,-0.2075622,0.1455184,0.3851621,-0.03261775,-0.1641317,0.4962527,-0.4327848], [0.4139032,0.488288,-0.2982241,-0.04613764,-0.1192485,0.1754784,-0.6221207,0.4165784,-0.1992028,-0.6447833,0.5267082,0.6768263,0.06143328,0.4394273,-0.294682,-0.2185531,0.1927701,0.05180355,0.03294195,0.3886774], [0.1460285,-0.5677418,-0.140661,0.125364,0.3987716,0.3048637,0.2169795,-0.0618353,-0.01004442,-0.3333107,0.1081875,0.3108865,0.2367988,-0.05928792,0.16283,0.3179768,0.1282294,-0.0787098,0.831525,0.8246865], [0.01737489,-0.456684,-0.1953101,-0.1311628,-0.1250159,-0.000516626,-0.2526562,-0.04254709,-0.1444844,0.4263039,-0.2935139,0.02771665,-0.3543187,-0.5116138,0.5247771,0.2836708,-0.1283924,0.2246113,0.3543716,0.3088677], [0.05245586,0.09138041,0.1967043,-0.2704458,0.3834881,0.03940585,-0.03310758,0.1310997,0.2982889,-0.08152913,0.03700271,0.0621473,-0.05161048,-0.06645896,0.37963,-0.1395274,-0.1446327,0.8424478,-0.4554173,-0.4021114], [0.5346174,-0.4130669,-0.214337,0.304835,-0.2330119,0.1368102,0.1455767,-0.130872,-0.5518047,-0.3302498,0.01804835,0.06923363,0.358842,0.4438292,0.1022939,-0.2664797,0.215396,-0.03202679,-0.3496419,0.05116647], [-0.1640065,0.3471752,0.5269844,0.3446769,-0.2796298,-0.2408792,0.08692627,0.1073999,0.05454664,-0.6803531,-0.05300742,0.2766897,-0.361286,0.1395831,0.1423061,-0.09791463,-0.7045291,-0.2860973,-0.30561,-0.1276198], [-0.1842436,0.2010034,-0.04024048,0.4502543,-0.580112,-0.2346669,-0.4558353,0.1785675,-0.04216867,-0.3796257,0.4518469,-0.09466757,0.1300182,-0.5718942,-0.00579669,-0.06714272,0.344596,-0.1709574,-0.1262554,-0.425169], [-0.5138813,-0.06126623,0.02238397,-0.1336476,0.1404301,0.4568125,-0.1867813,-0.1096226,-0.3316288,-0.1816757,0.6136439,0.1267167,0.5176161,0.5634945,-0.2916497,0.04231951,0.2264638,-0.1636193,0.009296822,-0.2858832]]], "biases": [[[-0.09953222],[-0.08662264],[-0.06236593],[-0.1070867],[-0.1330279],[-0.05236559],[-0.03178025],[-0.09433859],[-0.1132221],[-0.0118434],[-0.1803191],[-0.06749931],[-0.04618935],[-0.09569946],[-0.09851216],[-0.1040235],[-0.1388803],[-0.1095868],[-0.07826674],[-0.1290289]], [[0.2976859],[-0.1964477],[-0.09728108],[0.12925],[-0.006329367],[0.007231483],[-0.05581833],[-0.07543748],[0.2173129],[-0.04274178],[0.154778],[0.1961876],[-0.1733435],[-0.03051897],[0.05988216],[0.00920568],[0.06150246],[-0.1372384],[-0.03241873],[0.2938818]]]}